digraph Tree {
node [shape=box, fontname="helvetica"] ;
edge [fontname="helvetica"] ;
0 [label="income <= 24.0\ngini = 0.5\nsamples = 6\nvalue = [3, 3]\nclass = no"] ;
1 [label="gini = 0.0\nsamples = 2\nvalue = [2, 0]\nclass = no"] ;
0 -> 1 [labeldistance=2.5, labelangle=45, headlabel="True"] ;
2 [label="iq <= 105.0\ngini = 0.375\nsamples = 4\nvalue = [1, 3]\nclass = yes"] ;
0 -> 2 [labeldistance=2.5, labelangle=-45, headlabel="False"] ;
3 [label="income <= 43.0\ngini = 0.5\nsamples = 2\nvalue = [1, 1]\nclass = no"] ;
2 -> 3 ;
4 [label="gini = 0.0\nsamples = 1\nvalue = [0, 1]\nclass = yes"] ;
3 -> 4 ;
5 [label="gini = 0.0\nsamples = 1\nvalue = [1, 0]\nclass = no"] ;
3 -> 5 ;
6 [label="gini = 0.0\nsamples = 2\nvalue = [0, 2]\nclass = yes"] ;
2 -> 6 ;
}